digraph Tree {
node [shape=box, fontname="helvetica"] ;
edge [fontname="helvetica"] ;
0 [label="X[3] <= 0.275\ngini = 0.499\nsamples = 7461\nvalue = [4788, 2176, 497]"] ;
1 [label="X[8] <= 0.399\ngini = 0.525\nsamples = 200\nvalue = [72, 11, 117]"] ;
0 -> 1 [labeldistance=2.5, labelangle=45, headlabel="True"] ;
2 [label="X[0] <= 0.446\ngini = 0.543\nsamples = 99\nvalue = [59, 10, 30]"] ;
1 -> 2 ;
3 [label="X[5] <= 0.246\ngini = 0.26\nsamples = 52\nvalue = [44, 0, 8]"] ;
2 -> 3 ;
4 [label="X[8] <= 0.362\ngini = 0.087\nsamples = 44\nvalue = [42, 0, 2]"] ;
3 -> 4 ;
5 [label="gini = 0.0\nsamples = 36\nvalue = [36, 0, 0]"] ;
4 -> 5 ;
6 [label="X[5] <= 0.192\ngini = 0.375\nsamples = 8\nvalue = [6, 0, 2]"] ;
4 -> 6 ;
7 [label="gini = 0.0\nsamples = 5\nvalue = [5, 0, 0]"] ;
6 -> 7 ;
8 [label="X[5] <= 0.213\ngini = 0.444\nsamples = 3\nvalue = [1, 0, 2]"] ;
6 -> 8 ;
9 [label="gini = 0.0\nsamples = 2\nvalue = [0, 0, 2]"] ;
8 -> 9 ;
10 [label="gini = 0.0\nsamples = 1\nvalue = [1, 0, 0]"] ;
8 -> 10 ;
11 [label="X[10] <= 0.53\ngini = 0.375\nsamples = 8\nvalue = [2, 0, 6]"] ;
3 -> 11 ;
12 [label="gini = 0.0\nsamples = 6\nvalue = [0, 0, 6]"] ;
11 -> 12 ;
13 [label="gini = 0.0\nsamples = 2\nvalue = [2, 0, 0]"] ;
11 -> 13 ;
14 [label="X[0] <= 0.661\ngini = 0.634\nsamples = 47\nvalue = [15, 10, 22]"] ;
2 -> 14 ;
15 [label="X[9] <= 0.232\ngini = 0.555\nsamples = 37\nvalue = [5, 10, 22]"] ;
14 -> 15 ;
16 [label="X[10] <= 0.634\ngini = 0.395\nsamples = 29\nvalue = [4, 3, 22]"] ;
15 -> 16 ;
17 [label="X[2] <= 0.083\ngini = 0.269\nsamples = 26\nvalue = [1, 3, 22]"] ;
16 -> 17 ;
18 [label="X[5] <= 0.21\ngini = 0.444\nsamples = 3\nvalue = [0, 2, 1]"] ;
17 -> 18 ;
19 [label="gini = 0.0\nsamples = 1\nvalue = [0, 0, 1]"] ;
18 -> 19 ;
20 [label="gini = 0.0\nsamples = 2\nvalue = [0, 2, 0]"] ;
18 -> 20 ;
21 [label="X[5] <= 0.199\ngini = 0.163\nsamples = 23\nvalue = [1, 1, 21]"] ;
17 -> 21 ;
22 [label="X[8] <= 0.289\ngini = 0.667\nsamples = 3\nvalue = [1, 1, 1]"] ;
21 -> 22 ;
23 [label="gini = 0.0\nsamples = 1\nvalue = [0, 0, 1]"] ;
22 -> 23 ;
24 [label="X[8] <= 0.332\ngini = 0.5\nsamples = 2\nvalue = [1, 1, 0]"] ;
22 -> 24 ;
25 [label="gini = 0.0\nsamples = 1\nvalue = [1, 0, 0]"] ;
24 -> 25 ;
26 [label="gini = 0.0\nsamples = 1\nvalue = [0, 1, 0]"] ;
24 -> 26 ;
27 [label="gini = 0.0\nsamples = 20\nvalue = [0, 0, 20]"] ;
21 -> 27 ;
28 [label="gini = 0.0\nsamples = 3\nvalue = [3, 0, 0]"] ;
16 -> 28 ;
29 [label="X[5] <= 0.219\ngini = 0.219\nsamples = 8\nvalue = [1, 7, 0]"] ;
15 -> 29 ;
30 [label="gini = 0.0\nsamples = 7\nvalue = [0, 7, 0]"] ;
29 -> 30 ;
31 [label="gini = 0.0\nsamples = 1\nvalue = [1, 0, 0]"] ;
29 -> 31 ;
32 [label="gini = 0.0\nsamples = 10\nvalue = [10, 0, 0]"] ;
14 -> 32 ;
33 [label="X[4] <= 0.661\ngini = 0.241\nsamples = 101\nvalue = [13, 1, 87]"] ;
1 -> 33 ;
34 [label="X[9] <= 0.248\ngini = 0.172\nsamples = 96\nvalue = [8, 1, 87]"] ;
33 -> 34 ;
35 [label="X[6] <= 0.258\ngini = 0.104\nsamples = 92\nvalue = [4, 1, 87]"] ;
34 -> 35 ;
36 [label="gini = 0.0\nsamples = 2\nvalue = [2, 0, 0]"] ;
35 -> 36 ;
37 [label="X[5] <= 0.14\ngini = 0.065\nsamples = 90\nvalue = [2, 1, 87]"] ;
35 -> 37 ;
38 [label="gini = 0.0\nsamples = 1\nvalue = [1, 0, 0]"] ;
37 -> 38 ;
39 [label="X[7] <= 0.793\ngini = 0.044\nsamples = 89\nvalue = [1, 1, 87]"] ;
37 -> 39 ;
40 [label="gini = 0.0\nsamples = 82\nvalue = [0, 0, 82]"] ;
39 -> 40 ;
41 [label="X[4] <= 0.183\ngini = 0.449\nsamples = 7\nvalue = [1, 1, 5]"] ;
39 -> 41 ;
42 [label="gini = 0.0\nsamples = 1\nvalue = [1, 0, 0]"] ;
41 -> 42 ;
43 [label="X[7] <= 0.859\ngini = 0.278\nsamples = 6\nvalue = [0, 1, 5]"] ;
41 -> 43 ;
44 [label="gini = 0.0\nsamples = 1\nvalue = [0, 1, 0]"] ;
43 -> 44 ;
45 [label="gini = 0.0\nsamples = 5\nvalue = [0, 0, 5]"] ;
43 -> 45 ;
46 [label="gini = 0.0\nsamples = 4\nvalue = [4, 0, 0]"] ;
34 -> 46 ;
47 [label="gini = 0.0\nsamples = 5\nvalue = [5, 0, 0]"] ;
33 -> 47 ;
48 [label="X[5] <= 0.186\ngini = 0.487\nsamples = 7261\nvalue = [4716, 2165, 380]"] ;
0 -> 48 [labeldistance=2.5, labelangle=-45, headlabel="False"] ;
49 [label="X[0] <= 0.542\ngini = 0.524\nsamples = 3251\nvalue = [1908, 1168, 175]"] ;
48 -> 49 ;
50 [label="X[1] <= 0.409\ngini = 0.505\nsamples = 2254\nvalue = [1415, 703, 136]"] ;
49 -> 50 ;
51 [label="X[0] <= 0.363\ngini = 0.542\nsamples = 1649\nvalue = [939, 592, 118]"] ;
50 -> 51 ;
52 [label="X[10] <= 0.823\ngini = 0.457\nsamples = 428\nvalue = [301, 84, 43]"] ;
51 -> 52 ;
53 [label="X[9] <= 0.64\ngini = 0.386\nsamples = 385\nvalue = [292, 73, 20]"] ;
52 -> 53 ;
54 [label="X[2] <= 0.067\ngini = 0.368\nsamples = 377\nvalue = [292, 65, 20]"] ;
53 -> 54 ;
55 [label="X[9] <= 0.407\ngini = 0.513\nsamples = 58\nvalue = [31, 26, 1]"] ;
54 -> 55 ;
56 [label="X[5] <= 0.181\ngini = 0.331\nsamples = 30\nvalue = [24, 5, 1]"] ;
55 -> 56 ;
57 [label="X[10] <= 0.329\ngini = 0.253\nsamples = 28\nvalue = [24, 3, 1]"] ;
56 -> 57 ;
58 [label="gini = 0.5\nsamples = 2\nvalue = [0, 1, 1]"] ;
57 -> 58 ;
59 [label="gini = 0.142\nsamples = 26\nvalue = [24, 2, 0]"] ;
57 -> 59 ;
60 [label="gini = 0.0\nsamples = 2\nvalue = [0, 2, 0]"] ;
56 -> 60 ;
61 [label="X[7] <= 0.842\ngini = 0.375\nsamples = 28\nvalue = [7, 21, 0]"] ;
55 -> 61 ;
62 [label="X[4] <= 0.223\ngini = 0.165\nsamples = 22\nvalue = [2, 20, 0]"] ;
61 -> 62 ;
63 [label="gini = 0.0\nsamples = 1\nvalue = [1, 0, 0]"] ;
62 -> 63 ;
64 [label="gini = 0.091\nsamples = 21\nvalue = [1, 20, 0]"] ;
62 -> 64 ;
65 [label="X[2] <= 0.043\ngini = 0.278\nsamples = 6\nvalue = [5, 1, 0]"] ;
61 -> 65 ;
66 [label="gini = 0.0\nsamples = 1\nvalue = [0, 1, 0]"] ;
65 -> 66 ;
67 [label="gini = 0.0\nsamples = 5\nvalue = [5, 0, 0]"] ;
65 -> 67 ;
68 [label="X[8] <= 0.528\ngini = 0.312\nsamples = 319\nvalue = [261, 39, 19]"] ;
54 -> 68 ;
69 [label="X[9] <= 0.16\ngini = 0.277\nsamples = 301\nvalue = [253, 37, 11]"] ;
68 -> 69 ;
70 [label="X[7] <= 0.696\ngini = 0.444\nsamples = 6\nvalue = [2, 0, 4]"] ;
69 -> 70 ;
71 [label="gini = 0.0\nsamples = 4\nvalue = [0, 0, 4]"] ;
70 -> 71 ;
72 [label="gini = 0.0\nsamples = 2\nvalue = [2, 0, 0]"] ;
70 -> 72 ;
73 [label="X[10] <= 0.713\ngini = 0.26\nsamples = 295\nvalue = [251, 37, 7]"] ;
69 -> 73 ;
74 [label="gini = 0.196\nsamples = 237\nvalue = [211, 25, 1]"] ;
73 -> 74 ;
75 [label="gini = 0.471\nsamples = 58\nvalue = [40, 12, 6]"] ;
73 -> 75 ;
76 [label="X[1] <= 0.282\ngini = 0.593\nsamples = 18\nvalue = [8, 2, 8]"] ;
68 -> 76 ;
77 [label="X[1] <= 0.118\ngini = 0.198\nsamples = 9\nvalue = [1, 0, 8]"] ;
76 -> 77 ;
78 [label="gini = 0.0\nsamples = 1\nvalue = [1, 0, 0]"] ;
77 -> 78 ;
79 [label="gini = 0.0\nsamples = 8\nvalue = [0, 0, 8]"] ;
77 -> 79 ;
80 [label="X[5] <= 0.181\ngini = 0.346\nsamples = 9\nvalue = [7, 2, 0]"] ;
76 -> 80 ;
81 [label="gini = 0.219\nsamples = 8\nvalue = [7, 1, 0]"] ;
80 -> 81 ;
82 [label="gini = 0.0\nsamples = 1\nvalue = [0, 1, 0]"] ;
80 -> 82 ;
83 [label="gini = 0.0\nsamples = 8\nvalue = [0, 8, 0]"] ;
53 -> 83 ;
84 [label="X[1] <= 0.3\ngini = 0.605\nsamples = 43\nvalue = [9, 11, 23]"] ;
52 -> 84 ;
85 [label="X[4] <= 0.121\ngini = 0.252\nsamples = 27\nvalue = [4, 0, 23]"] ;
84 -> 85 ;
86 [label="gini = 0.0\nsamples = 3\nvalue = [3, 0, 0]"] ;
85 -> 86 ;
87 [label="X[3] <= 0.69\ngini = 0.08\nsamples = 24\nvalue = [1, 0, 23]"] ;
85 -> 87 ;
88 [label="gini = 0.0\nsamples = 1\nvalue = [1, 0, 0]"] ;
87 -> 88 ;
89 [label="gini = 0.0\nsamples = 23\nvalue = [0, 0, 23]"] ;
87 -> 89 ;
90 [label="X[8] <= 0.268\ngini = 0.43\nsamples = 16\nvalue = [5, 11, 0]"] ;
84 -> 90 ;
91 [label="gini = 0.0\nsamples = 10\nvalue = [0, 10, 0]"] ;
90 -> 91 ;
92 [label="X[0] <= 0.351\ngini = 0.278\nsamples = 6\nvalue = [5, 1, 0]"] ;
90 -> 92 ;
93 [label="gini = 0.0\nsamples = 5\nvalue = [5, 0, 0]"] ;
92 -> 93 ;
94 [label="gini = 0.0\nsamples = 1\nvalue = [0, 1, 0]"] ;
92 -> 94 ;
95 [label="X[7] <= 0.755\ngini = 0.55\nsamples = 1221\nvalue = [638, 508, 75]"] ;
51 -> 95 ;
96 [label="X[10] <= 0.579\ngini = 0.551\nsamples = 620\nvalue = [284, 301, 35]"] ;
95 -> 96 ;
97 [label="X[9] <= 0.211\ngini = 0.523\nsamples = 356\nvalue = [138, 203, 15]"] ;
96 -> 97 ;
98 [label="X[8] <= 0.299\ngini = 0.595\nsamples = 29\nvalue = [16, 7, 6]"] ;
97 -> 98 ;
99 [label="X[3] <= 0.475\ngini = 0.245\nsamples = 7\nvalue = [1, 6, 0]"] ;
98 -> 99 ;
100 [label="gini = 0.0\nsamples = 1\nvalue = [1, 0, 0]"] ;
99 -> 100 ;
101 [label="gini = 0.0\nsamples = 6\nvalue = [0, 6, 0]"] ;
99 -> 101 ;
102 [label="X[2] <= 0.12\ngini = 0.459\nsamples = 22\nvalue = [15, 1, 6]"] ;
98 -> 102 ;
103 [label="gini = 0.0\nsamples = 14\nvalue = [14, 0, 0]"] ;
102 -> 103 ;
104 [label="X[7] <= 0.516\ngini = 0.406\nsamples = 8\nvalue = [1, 1, 6]"] ;
102 -> 104 ;
105 [label="gini = 0.5\nsamples = 2\nvalue = [1, 1, 0]"] ;
104 -> 105 ;
106 [label="gini = 0.0\nsamples = 6\nvalue = [0, 0, 6]"] ;
104 -> 106 ;
107 [label="X[1] <= 0.191\ngini = 0.501\nsamples = 327\nvalue = [122, 196, 9]"] ;
97 -> 107 ;
108 [label="X[3] <= 0.625\ngini = 0.18\nsamples = 10\nvalue = [9, 1, 0]"] ;
107 -> 108 ;
109 [label="gini = 0.0\nsamples = 1\nvalue = [0, 1, 0]"] ;
108 -> 109 ;
110 [label="gini = 0.0\nsamples = 9\nvalue = [9, 0, 0]"] ;
108 -> 110 ;
111 [label="X[2] <= 0.056\ngini = 0.494\nsamples = 317\nvalue = [113, 195, 9]"] ;
107 -> 111 ;
112 [label="X[7] <= 0.554\ngini = 0.484\nsamples = 39\nvalue = [23, 16, 0]"] ;
111 -> 112 ;
113 [label="gini = 0.337\nsamples = 14\nvalue = [3, 11, 0]"] ;
112 -> 113 ;
114 [label="gini = 0.32\nsamples = 25\nvalue = [20, 5, 0]"] ;
112 -> 114 ;
115 [label="X[3] <= 0.965\ngini = 0.48\nsamples = 278\nvalue = [90, 179, 9]"] ;
111 -> 115 ;
116 [label="gini = 0.52\nsamples = 92\nvalue = [43, 47, 2]"] ;
115 -> 116 ;
117 [label="gini = 0.431\nsamples = 186\nvalue = [47, 132, 7]"] ;
115 -> 117 ;
118 [label="X[3] <= 0.555\ngini = 0.551\nsamples = 264\nvalue = [146, 98, 20]"] ;
96 -> 118 ;
119 [label="X[9] <= 0.239\ngini = 0.535\nsamples = 34\nvalue = [9, 21, 4]"] ;
118 -> 119 ;
120 [label="X[10] <= 0.652\ngini = 0.639\nsamples = 13\nvalue = [6, 3, 4]"] ;
119 -> 120 ;
121 [label="X[0] <= 0.405\ngini = 0.48\nsamples = 10\nvalue = [6, 0, 4]"] ;
120 -> 121 ;
122 [label="gini = 0.0\nsamples = 3\nvalue = [0, 0, 3]"] ;
121 -> 122 ;
123 [label="gini = 0.245\nsamples = 7\nvalue = [6, 0, 1]"] ;
121 -> 123 ;
124 [label="gini = 0.0\nsamples = 3\nvalue = [0, 3, 0]"] ;
120 -> 124 ;
125 [label="X[6] <= 0.18\ngini = 0.245\nsamples = 21\nvalue = [3, 18, 0]"] ;
119 -> 125 ;
126 [label="gini = 0.0\nsamples = 2\nvalue = [2, 0, 0]"] ;
125 -> 126 ;
127 [label="X[10] <= 0.756\ngini = 0.1\nsamples = 19\nvalue = [1, 18, 0]"] ;
125 -> 127 ;
128 [label="gini = 0.0\nsamples = 18\nvalue = [0, 18, 0]"] ;
127 -> 128 ;
129 [label="gini = 0.0\nsamples = 1\nvalue = [1, 0, 0]"] ;
127 -> 129 ;
130 [label="X[9] <= 0.597\ngini = 0.528\nsamples = 230\nvalue = [137, 77, 16]"] ;
118 -> 130 ;
131 [label="X[5] <= 0.144\ngini = 0.517\nsamples = 220\nvalue = [136, 68, 16]"] ;
130 -> 131 ;
132 [label="X[2] <= 0.201\ngini = 0.32\nsamples = 64\nvalue = [52, 8, 4]"] ;
131 -> 132 ;
133 [label="gini = 0.196\nsamples = 56\nvalue = [50, 2, 4]"] ;
132 -> 133 ;
134 [label="gini = 0.375\nsamples = 8\nvalue = [2, 6, 0]"] ;
132 -> 134 ;
135 [label="X[8] <= 0.24\ngini = 0.556\nsamples = 156\nvalue = [84, 60, 12]"] ;
131 -> 135 ;
136 [label="gini = 0.313\nsamples = 36\nvalue = [29, 7, 0]"] ;
135 -> 136 ;
137 [label="gini = 0.585\nsamples = 120\nvalue = [55, 53, 12]"] ;
135 -> 137 ;
138 [label="X[6] <= 0.331\ngini = 0.18\nsamples = 10\nvalue = [1, 9, 0]"] ;
130 -> 138 ;
139 [label="gini = 0.0\nsamples = 9\nvalue = [0, 9, 0]"] ;
138 -> 139 ;
140 [label="gini = 0.0\nsamples = 1\nvalue = [1, 0, 0]"] ;
138 -> 140 ;
141 [label="X[2] <= 0.195\ngini = 0.53\nsamples = 601\nvalue = [354, 207, 40]"] ;
95 -> 141 ;
142 [label="X[9] <= 0.46\ngini = 0.491\nsamples = 503\nvalue = [328, 142, 33]"] ;
141 -> 142 ;
143 [label="X[8] <= 0.515\ngini = 0.467\nsamples = 425\nvalue = [292, 100, 33]"] ;
142 -> 143 ;
144 [label="X[3] <= 0.895\ngini = 0.436\nsamples = 395\nvalue = [281, 93, 21]"] ;
143 -> 144 ;
145 [label="X[9] <= 0.246\ngini = 0.5\nsamples = 51\nvalue = [25, 26, 0]"] ;
144 -> 145 ;
146 [label="gini = 0.278\nsamples = 18\nvalue = [15, 3, 0]"] ;
145 -> 146 ;
147 [label="gini = 0.422\nsamples = 33\nvalue = [10, 23, 0]"] ;
145 -> 147 ;
148 [label="X[10] <= 0.543\ngini = 0.405\nsamples = 344\nvalue = [256, 67, 21]"] ;
144 -> 148 ;
149 [label="gini = 0.484\nsamples = 78\nvalue = [46, 32, 0]"] ;
148 -> 149 ;
150 [label="gini = 0.353\nsamples = 266\nvalue = [210, 35, 21]"] ;
148 -> 150 ;
151 [label="X[1] <= 0.327\ngini = 0.651\nsamples = 30\nvalue = [11, 7, 12]"] ;
143 -> 151 ;
152 [label="X[10] <= 0.64\ngini = 0.391\nsamples = 15\nvalue = [4, 0, 11]"] ;
151 -> 152 ;
153 [label="gini = 0.32\nsamples = 5\nvalue = [4, 0, 1]"] ;
152 -> 153 ;
154 [label="gini = 0.0\nsamples = 10\nvalue = [0, 0, 10]"] ;
152 -> 154 ;
155 [label="X[3] <= 0.815\ngini = 0.56\nsamples = 15\nvalue = [7, 7, 1]"] ;
151 -> 155 ;
156 [label="gini = 0.0\nsamples = 4\nvalue = [4, 0, 0]"] ;
155 -> 156 ;
157 [label="gini = 0.512\nsamples = 11\nvalue = [3, 7, 1]"] ;
155 -> 157 ;
158 [label="X[6] <= 0.23\ngini = 0.497\nsamples = 78\nvalue = [36, 42, 0]"] ;
142 -> 158 ;
159 [label="X[8] <= 0.37\ngini = 0.332\nsamples = 38\nvalue = [8, 30, 0]"] ;
158 -> 159 ;
160 [label="X[3] <= 0.98\ngini = 0.191\nsamples = 28\nvalue = [3, 25, 0]"] ;
159 -> 160 ;
161 [label="gini = 0.0\nsamples = 2\nvalue = [2, 0, 0]"] ;
160 -> 161 ;
162 [label="gini = 0.074\nsamples = 26\nvalue = [1, 25, 0]"] ;
160 -> 162 ;
163 [label="X[10] <= 0.744\ngini = 0.5\nsamples = 10\nvalue = [5, 5, 0]"] ;
159 -> 163 ;
164 [label="gini = 0.0\nsamples = 4\nvalue = [4, 0, 0]"] ;
163 -> 164 ;
165 [label="gini = 0.278\nsamples = 6\nvalue = [1, 5, 0]"] ;
163 -> 165 ;
166 [label="X[3] <= 0.995\ngini = 0.42\nsamples = 40\nvalue = [28, 12, 0]"] ;
158 -> 166 ;
167 [label="gini = 0.0\nsamples = 10\nvalue = [10, 0, 0]"] ;
166 -> 167 ;
168 [label="X[5] <= 0.149\ngini = 0.48\nsamples = 30\nvalue = [18, 12, 0]"] ;
166 -> 168 ;
169 [label="gini = 0.0\nsamples = 5\nvalue = [0, 5, 0]"] ;
168 -> 169 ;
170 [label="gini = 0.403\nsamples = 25\nvalue = [18, 7, 0]"] ;
168 -> 170 ;
171 [label="X[5] <= 0.141\ngini = 0.485\nsamples = 98\nvalue = [26, 65, 7]"] ;
141 -> 171 ;
172 [label="X[10] <= 0.53\ngini = 0.089\nsamples = 43\nvalue = [2, 41, 0]"] ;
171 -> 172 ;
173 [label="gini = 0.0\nsamples = 2\nvalue = [2, 0, 0]"] ;
172 -> 173 ;
174 [label="gini = 0.0\nsamples = 41\nvalue = [0, 41, 0]"] ;
172 -> 174 ;
175 [label="X[0] <= 0.399\ngini = 0.603\nsamples = 55\nvalue = [24, 24, 7]"] ;
171 -> 175 ;
176 [label="gini = 0.0\nsamples = 7\nvalue = [7, 0, 0]"] ;
175 -> 176 ;
177 [label="X[6] <= 0.376\ngini = 0.603\nsamples = 48\nvalue = [17, 24, 7]"] ;
175 -> 177 ;
178 [label="X[1] <= 0.245\ngini = 0.553\nsamples = 43\nvalue = [17, 23, 3]"] ;
177 -> 178 ;
179 [label="gini = 0.245\nsamples = 7\nvalue = [6, 1, 0]"] ;
178 -> 179 ;
180 [label="gini = 0.526\nsamples = 36\nvalue = [11, 22, 3]"] ;
178 -> 180 ;
181 [label="X[7] <= 0.957\ngini = 0.32\nsamples = 5\nvalue = [0, 1, 4]"] ;
177 -> 181 ;
182 [label="gini = 0.0\nsamples = 4\nvalue = [0, 0, 4]"] ;
181 -> 182 ;
183 [label="gini = 0.0\nsamples = 1\nvalue = [0, 1, 0]"] ;
181 -> 183 ;
184 [label="X[8] <= 0.605\ngini = 0.346\nsamples = 605\nvalue = [476, 111, 18]"] ;
50 -> 184 ;
185 [label="X[9] <= 0.468\ngini = 0.33\nsamples = 594\nvalue = [475, 103, 16]"] ;
184 -> 185 ;
186 [label="X[7] <= 0.679\ngini = 0.295\nsamples = 526\nvalue = [435, 75, 16]"] ;
185 -> 186 ;
187 [label="X[8] <= 0.458\ngini = 0.425\nsamples = 162\nvalue = [116, 40, 6]"] ;
186 -> 187 ;
188 [label="X[0] <= 0.423\ngini = 0.344\nsamples = 130\nvalue = [102, 26, 2]"] ;
187 -> 188 ;
189 [label="X[8] <= 0.441\ngini = 0.144\nsamples = 52\nvalue = [48, 3, 1]"] ;
188 -> 189 ;
190 [label="X[8] <= 0.181\ngini = 0.111\nsamples = 51\nvalue = [48, 3, 0]"] ;
189 -> 190 ;
191 [label="gini = 0.5\nsamples = 4\nvalue = [2, 2, 0]"] ;
190 -> 191 ;
192 [label="gini = 0.042\nsamples = 47\nvalue = [46, 1, 0]"] ;
190 -> 192 ;
193 [label="gini = 0.0\nsamples = 1\nvalue = [0, 0, 1]"] ;
189 -> 193 ;
194 [label="X[10] <= 0.555\ngini = 0.434\nsamples = 78\nvalue = [54, 23, 1]"] ;
188 -> 194 ;
195 [label="X[8] <= 0.296\ngini = 0.509\nsamples = 46\nvalue = [26, 19, 1]"] ;
194 -> 195 ;
196 [label="gini = 0.444\nsamples = 15\nvalue = [5, 10, 0]"] ;
195 -> 196 ;
197 [label="gini = 0.456\nsamples = 31\nvalue = [21, 9, 1]"] ;
195 -> 197 ;
198 [label="X[0] <= 0.452\ngini = 0.219\nsamples = 32\nvalue = [28, 4, 0]"] ;
194 -> 198 ;
199 [label="gini = 0.49\nsamples = 7\nvalue = [4, 3, 0]"] ;
198 -> 199 ;
200 [label="gini = 0.077\nsamples = 25\nvalue = [24, 1, 0]"] ;
198 -> 200 ;
201 [label="X[6] <= 0.455\ngini = 0.602\nsamples = 32\nvalue = [14, 14, 4]"] ;
187 -> 201 ;
202 [label="X[3] <= 0.975\ngini = 0.555\nsamples = 20\nvalue = [12, 5, 3]"] ;
201 -> 202 ;
203 [label="X[1] <= 0.509\ngini = 0.418\nsamples = 15\nvalue = [11, 1, 3]"] ;
202 -> 203 ;
204 [label="gini = 0.272\nsamples = 13\nvalue = [11, 1, 1]"] ;
203 -> 204 ;
205 [label="gini = 0.0\nsamples = 2\nvalue = [0, 0, 2]"] ;
203 -> 205 ;
206 [label="X[6] <= 0.416\ngini = 0.32\nsamples = 5\nvalue = [1, 4, 0]"] ;
202 -> 206 ;
207 [label="gini = 0.0\nsamples = 4\nvalue = [0, 4, 0]"] ;
206 -> 207 ;
208 [label="gini = 0.0\nsamples = 1\nvalue = [1, 0, 0]"] ;
206 -> 208 ;
209 [label="X[8] <= 0.541\ngini = 0.403\nsamples = 12\nvalue = [2, 9, 1]"] ;
201 -> 209 ;
210 [label="X[3] <= 0.86\ngini = 0.198\nsamples = 9\nvalue = [0, 8, 1]"] ;
209 -> 210 ;
211 [label="gini = 0.5\nsamples = 2\nvalue = [0, 1, 1]"] ;
210 -> 211 ;
212 [label="gini = 0.0\nsamples = 7\nvalue = [0, 7, 0]"] ;
210 -> 212 ;
213 [label="X[2] <= 0.064\ngini = 0.444\nsamples = 3\nvalue = [2, 1, 0]"] ;
209 -> 213 ;
214 [label="gini = 0.0\nsamples = 1\nvalue = [0, 1, 0]"] ;
213 -> 214 ;
215 [label="gini = 0.0\nsamples = 2\nvalue = [2, 0, 0]"] ;
213 -> 215 ;
216 [label="X[5] <= 0.185\ngini = 0.222\nsamples = 364\nvalue = [319, 35, 10]"] ;
186 -> 216 ;
217 [label="X[1] <= 0.691\ngini = 0.202\nsamples = 359\nvalue = [319, 31, 9]"] ;
216 -> 217 ;
218 [label="X[4] <= 0.364\ngini = 0.195\nsamples = 356\nvalue = [318, 29, 9]"] ;
217 -> 218 ;
219 [label="gini = 0.0\nsamples = 1\nvalue = [0, 0, 1]"] ;
218 -> 219 ;
220 [label="X[5] <= 0.058\ngini = 0.19\nsamples = 355\nvalue = [318, 29, 8]"] ;
218 -> 220 ;
221 [label="gini = 0.0\nsamples = 1\nvalue = [0, 1, 0]"] ;
220 -> 221 ;
222 [label="gini = 0.186\nsamples = 354\nvalue = [318, 28, 8]"] ;
220 -> 222 ;
223 [label="X[5] <= 0.144\ngini = 0.444\nsamples = 3\nvalue = [1, 2, 0]"] ;
217 -> 223 ;
224 [label="gini = 0.0\nsamples = 1\nvalue = [1, 0, 0]"] ;
223 -> 224 ;
225 [label="gini = 0.0\nsamples = 2\nvalue = [0, 2, 0]"] ;
223 -> 225 ;
226 [label="X[5] <= 0.186\ngini = 0.32\nsamples = 5\nvalue = [0, 4, 1]"] ;
216 -> 226 ;
227 [label="gini = 0.0\nsamples = 4\nvalue = [0, 4, 0]"] ;
226 -> 227 ;
228 [label="gini = 0.0\nsamples = 1\nvalue = [0, 0, 1]"] ;
226 -> 228 ;
229 [label="X[0] <= 0.417\ngini = 0.484\nsamples = 68\nvalue = [40, 28, 0]"] ;
185 -> 229 ;
230 [label="X[8] <= 0.337\ngini = 0.266\nsamples = 19\nvalue = [3, 16, 0]"] ;
229 -> 230 ;
231 [label="gini = 0.0\nsamples = 15\nvalue = [0, 15, 0]"] ;
230 -> 231 ;
232 [label="X[7] <= 0.859\ngini = 0.375\nsamples = 4\nvalue = [3, 1, 0]"] ;
230 -> 232 ;
233 [label="gini = 0.0\nsamples = 1\nvalue = [0, 1, 0]"] ;
232 -> 233 ;
234 [label="gini = 0.0\nsamples = 3\nvalue = [3, 0, 0]"] ;
232 -> 234 ;
235 [label="X[9] <= 0.47\ngini = 0.37\nsamples = 49\nvalue = [37, 12, 0]"] ;
229 -> 235 ;
236 [label="gini = 0.0\nsamples = 3\nvalue = [0, 3, 0]"] ;
235 -> 236 ;
237 [label="X[10] <= 0.652\ngini = 0.315\nsamples = 46\nvalue = [37, 9, 0]"] ;
235 -> 237 ;
238 [label="X[10] <= 0.64\ngini = 0.436\nsamples = 28\nvalue = [19, 9, 0]"] ;
237 -> 238 ;
239 [label="X[10] <= 0.348\ngini = 0.393\nsamples = 26\nvalue = [19, 7, 0]"] ;
238 -> 239 ;
240 [label="gini = 0.0\nsamples = 1\nvalue = [0, 1, 0]"] ;
239 -> 240 ;
241 [label="gini = 0.365\nsamples = 25\nvalue = [19, 6, 0]"] ;
239 -> 241 ;
242 [label="gini = 0.0\nsamples = 2\nvalue = [0, 2, 0]"] ;
238 -> 242 ;
243 [label="gini = 0.0\nsamples = 18\nvalue = [18, 0, 0]"] ;
237 -> 243 ;
244 [label="X[3] <= 0.745\ngini = 0.43\nsamples = 11\nvalue = [1, 8, 2]"] ;
184 -> 244 ;
245 [label="gini = 0.0\nsamples = 2\nvalue = [0, 0, 2]"] ;
244 -> 245 ;
246 [label="X[9] <= 0.499\ngini = 0.198\nsamples = 9\nvalue = [1, 8, 0]"] ;
244 -> 246 ;
247 [label="gini = 0.0\nsamples = 8\nvalue = [0, 8, 0]"] ;
246 -> 247 ;
248 [label="gini = 0.0\nsamples = 1\nvalue = [1, 0, 0]"] ;
246 -> 248 ;
249 [label="X[2] <= 0.179\ngini = 0.536\nsamples = 997\nvalue = [493, 465, 39]"] ;
49 -> 249 ;
250 [label="X[2] <= 0.045\ngini = 0.528\nsamples = 820\nvalue = [450, 337, 33]"] ;
249 -> 250 ;
251 [label="X[5] <= 0.168\ngini = 0.409\nsamples = 158\nvalue = [39, 115, 4]"] ;
250 -> 251 ;
252 [label="X[6] <= 0.455\ngini = 0.309\nsamples = 118\nvalue = [20, 96, 2]"] ;
251 -> 252 ;
253 [label="X[10] <= 0.835\ngini = 0.231\nsamples = 105\nvalue = [14, 91, 0]"] ;
252 -> 253 ;
254 [label="X[5] <= 0.069\ngini = 0.192\nsamples = 102\nvalue = [11, 91, 0]"] ;
253 -> 254 ;
255 [label="gini = 0.0\nsamples = 2\nvalue = [2, 0, 0]"] ;
254 -> 255 ;
256 [label="X[9] <= 0.353\ngini = 0.164\nsamples = 100\nvalue = [9, 91, 0]"] ;
254 -> 256 ;
257 [label="X[7] <= 0.973\ngini = 0.032\nsamples = 62\nvalue = [1, 61, 0]"] ;
256 -> 257 ;
258 [label="gini = 0.0\nsamples = 59\nvalue = [0, 59, 0]"] ;
257 -> 258 ;
259 [label="gini = 0.444\nsamples = 3\nvalue = [1, 2, 0]"] ;
257 -> 259 ;
260 [label="X[9] <= 0.357\ngini = 0.332\nsamples = 38\nvalue = [8, 30, 0]"] ;
256 -> 260 ;
261 [label="gini = 0.0\nsamples = 3\nvalue = [3, 0, 0]"] ;
260 -> 261 ;
262 [label="gini = 0.245\nsamples = 35\nvalue = [5, 30, 0]"] ;
260 -> 262 ;
263 [label="gini = 0.0\nsamples = 3\nvalue = [3, 0, 0]"] ;
253 -> 263 ;
264 [label="X[9] <= 0.668\ngini = 0.615\nsamples = 13\nvalue = [6, 5, 2]"] ;
252 -> 264 ;
265 [label="X[8] <= 0.309\ngini = 0.496\nsamples = 11\nvalue = [6, 5, 0]"] ;
264 -> 265 ;
266 [label="X[9] <= 0.237\ngini = 0.32\nsamples = 5\nvalue = [1, 4, 0]"] ;
265 -> 266 ;
267 [label="gini = 0.0\nsamples = 1\nvalue = [1, 0, 0]"] ;
266 -> 267 ;
268 [label="gini = 0.0\nsamples = 4\nvalue = [0, 4, 0]"] ;
266 -> 268 ;
269 [label="X[7] <= 0.277\ngini = 0.278\nsamples = 6\nvalue = [5, 1, 0]"] ;
265 -> 269 ;
270 [label="gini = 0.0\nsamples = 1\nvalue = [0, 1, 0]"] ;
269 -> 270 ;
271 [label="gini = 0.0\nsamples = 5\nvalue = [5, 0, 0]"] ;
269 -> 271 ;
272 [label="gini = 0.0\nsamples = 2\nvalue = [0, 0, 2]"] ;
264 -> 272 ;
273 [label="X[4] <= 0.47\ngini = 0.546\nsamples = 40\nvalue = [19, 19, 2]"] ;
251 -> 273 ;
274 [label="X[7] <= 0.538\ngini = 0.449\nsamples = 14\nvalue = [10, 2, 2]"] ;
273 -> 274 ;
275 [label="gini = 0.0\nsamples = 2\nvalue = [0, 0, 2]"] ;
274 -> 275 ;
276 [label="X[6] <= 0.185\ngini = 0.278\nsamples = 12\nvalue = [10, 2, 0]"] ;
274 -> 276 ;
277 [label="gini = 0.0\nsamples = 1\nvalue = [0, 1, 0]"] ;
276 -> 277 ;
278 [label="X[9] <= 0.556\ngini = 0.165\nsamples = 11\nvalue = [10, 1, 0]"] ;
276 -> 278 ;
279 [label="gini = 0.0\nsamples = 9\nvalue = [9, 0, 0]"] ;
278 -> 279 ;
280 [label="X[7] <= 0.755\ngini = 0.5\nsamples = 2\nvalue = [1, 1, 0]"] ;
278 -> 280 ;
281 [label="gini = 0.0\nsamples = 1\nvalue = [0, 1, 0]"] ;
280 -> 281 ;
282 [label="gini = 0.0\nsamples = 1\nvalue = [1, 0, 0]"] ;
280 -> 282 ;
283 [label="X[3] <= 0.875\ngini = 0.453\nsamples = 26\nvalue = [9, 17, 0]"] ;
273 -> 283 ;
284 [label="X[1] <= 0.691\ngini = 0.375\nsamples = 8\nvalue = [6, 2, 0]"] ;
283 -> 284 ;
285 [label="gini = 0.0\nsamples = 6\nvalue = [6, 0, 0]"] ;
284 -> 285 ;
286 [label="gini = 0.0\nsamples = 2\nvalue = [0, 2, 0]"] ;
284 -> 286 ;
287 [label="X[2] <= 0.008\ngini = 0.278\nsamples = 18\nvalue = [3, 15, 0]"] ;
283 -> 287 ;
288 [label="gini = 0.0\nsamples = 2\nvalue = [2, 0, 0]"] ;
287 -> 288 ;
289 [label="X[8] <= 0.287\ngini = 0.117\nsamples = 16\nvalue = [1, 15, 0]"] ;
287 -> 289 ;
290 [label="gini = 0.0\nsamples = 1\nvalue = [1, 0, 0]"] ;
289 -> 290 ;
291 [label="gini = 0.0\nsamples = 15\nvalue = [0, 15, 0]"] ;
289 -> 291 ;
292 [label="X[6] <= 0.084\ngini = 0.5\nsamples = 662\nvalue = [411, 222, 29]"] ;
250 -> 292 ;
293 [label="gini = 0.0\nsamples = 14\nvalue = [0, 14, 0]"] ;
292 -> 293 ;
294 [label="X[5] <= 0.154\ngini = 0.493\nsamples = 648\nvalue = [411, 208, 29]"] ;
292 -> 294 ;
295 [label="X[7] <= 0.63\ngini = 0.533\nsamples = 283\nvalue = [152, 119, 12]"] ;
294 -> 295 ;
296 [label="X[4] <= 0.444\ngini = 0.534\nsamples = 72\nvalue = [23, 43, 6]"] ;
295 -> 296 ;
297 [label="X[9] <= 0.547\ngini = 0.357\nsamples = 42\nvalue = [6, 33, 3]"] ;
296 -> 297 ;
298 [label="X[10] <= 0.799\ngini = 0.296\nsamples = 40\nvalue = [6, 33, 1]"] ;
297 -> 298 ;
299 [label="gini = 0.234\nsamples = 38\nvalue = [4, 33, 1]"] ;
298 -> 299 ;
300 [label="gini = 0.0\nsamples = 2\nvalue = [2, 0, 0]"] ;
298 -> 300 ;
301 [label="gini = 0.0\nsamples = 2\nvalue = [0, 0, 2]"] ;
297 -> 301 ;
302 [label="X[3] <= 0.975\ngini = 0.558\nsamples = 30\nvalue = [17, 10, 3]"] ;
296 -> 302 ;
303 [label="X[0] <= 0.631\ngini = 0.568\nsamples = 18\nvalue = [6, 10, 2]"] ;
302 -> 303 ;
304 [label="gini = 0.593\nsamples = 9\nvalue = [5, 2, 2]"] ;
303 -> 304 ;
305 [label="gini = 0.198\nsamples = 9\nvalue = [1, 8, 0]"] ;
303 -> 305 ;
306 [label="X[6] <= 0.506\ngini = 0.153\nsamples = 12\nvalue = [11, 0, 1]"] ;
302 -> 306 ;
307 [label="gini = 0.0\nsamples = 11\nvalue = [11, 0, 0]"] ;
306 -> 307 ;
308 [label="gini = 0.0\nsamples = 1\nvalue = [0, 0, 1]"] ;
306 -> 308 ;
309 [label="X[5] <= 0.11\ngini = 0.496\nsamples = 211\nvalue = [129, 76, 6]"] ;
295 -> 309 ;
310 [label="X[3] <= 0.985\ngini = 0.503\nsamples = 37\nvalue = [14, 22, 1]"] ;
309 -> 310 ;
311 [label="X[10] <= 0.774\ngini = 0.351\nsamples = 22\nvalue = [5, 17, 0]"] ;
310 -> 311 ;
312 [label="gini = 0.208\nsamples = 17\nvalue = [2, 15, 0]"] ;
311 -> 312 ;
313 [label="gini = 0.48\nsamples = 5\nvalue = [3, 2, 0]"] ;
311 -> 313 ;
314 [label="X[1] <= 0.436\ngini = 0.524\nsamples = 15\nvalue = [9, 5, 1]"] ;
310 -> 314 ;
315 [label="gini = 0.531\nsamples = 8\nvalue = [2, 5, 1]"] ;
314 -> 315 ;
316 [label="gini = 0.0\nsamples = 7\nvalue = [7, 0, 0]"] ;
314 -> 316 ;
317 [label="X[9] <= 0.434\ngini = 0.466\nsamples = 174\nvalue = [115, 54, 5]"] ;
309 -> 317 ;
318 [label="X[10] <= 0.634\ngini = 0.423\nsamples = 143\nvalue = [102, 37, 4]"] ;
317 -> 318 ;
319 [label="gini = 0.479\nsamples = 58\nvalue = [35, 23, 0]"] ;
318 -> 319 ;
320 [label="gini = 0.349\nsamples = 85\nvalue = [67, 14, 4]"] ;
318 -> 320 ;
321 [label="X[10] <= 0.677\ngini = 0.522\nsamples = 31\nvalue = [13, 17, 1]"] ;
317 -> 321 ;
322 [label="gini = 0.526\nsamples = 23\nvalue = [13, 9, 1]"] ;
321 -> 322 ;
323 [label="gini = 0.0\nsamples = 8\nvalue = [0, 8, 0]"] ;
321 -> 323 ;
324 [label="X[4] <= 0.426\ngini = 0.435\nsamples = 365\nvalue = [259, 89, 17]"] ;
294 -> 324 ;
325 [label="X[9] <= 0.599\ngini = 0.338\nsamples = 193\nvalue = [154, 29, 10]"] ;
324 -> 325 ;
326 [label="X[7] <= 0.63\ngini = 0.306\nsamples = 187\nvalue = [153, 29, 5]"] ;
325 -> 326 ;
327 [label="X[6] <= 0.331\ngini = 0.529\nsamples = 40\nvalue = [24, 13, 3]"] ;
326 -> 327 ;
328 [label="gini = 0.219\nsamples = 16\nvalue = [14, 2, 0]"] ;
327 -> 328 ;
329 [label="gini = 0.601\nsamples = 24\nvalue = [10, 11, 3]"] ;
327 -> 329 ;
330 [label="X[0] <= 0.589\ngini = 0.218\nsamples = 147\nvalue = [129, 16, 2]"] ;
326 -> 330 ;
331 [label="gini = 0.319\nsamples = 88\nvalue = [71, 15, 2]"] ;
330 -> 331 ;
332 [label="gini = 0.033\nsamples = 59\nvalue = [58, 1, 0]"] ;
330 -> 332 ;
333 [label="X[2] <= 0.115\ngini = 0.278\nsamples = 6\nvalue = [1, 0, 5]"] ;
325 -> 333 ;
334 [label="gini = 0.0\nsamples = 5\nvalue = [0, 0, 5]"] ;
333 -> 334 ;
335 [label="gini = 0.0\nsamples = 1\nvalue = [1, 0, 0]"] ;
333 -> 335 ;
336 [label="X[6] <= 0.23\ngini = 0.504\nsamples = 172\nvalue = [105, 60, 7]"] ;
324 -> 336 ;
337 [label="X[9] <= 0.382\ngini = 0.435\nsamples = 47\nvalue = [15, 32, 0]"] ;
336 -> 337 ;
338 [label="X[8] <= 0.47\ngini = 0.375\nsamples = 16\nvalue = [12, 4, 0]"] ;
337 -> 338 ;
339 [label="gini = 0.142\nsamples = 13\nvalue = [12, 1, 0]"] ;
338 -> 339 ;
340 [label="gini = 0.0\nsamples = 3\nvalue = [0, 3, 0]"] ;
338 -> 340 ;
341 [label="X[0] <= 0.589\ngini = 0.175\nsamples = 31\nvalue = [3, 28, 0]"] ;
337 -> 341 ;
342 [label="gini = 0.5\nsamples = 6\nvalue = [3, 3, 0]"] ;
341 -> 342 ;
343 [label="gini = 0.0\nsamples = 25\nvalue = [0, 25, 0]"] ;
341 -> 343 ;
344 [label="X[7] <= 0.527\ngini = 0.428\nsamples = 125\nvalue = [90, 28, 7]"] ;
336 -> 344 ;
345 [label="X[10] <= 0.494\ngini = 0.526\nsamples = 36\nvalue = [18, 17, 1]"] ;
344 -> 345 ;
346 [label="gini = 0.469\nsamples = 24\nvalue = [7, 16, 1]"] ;
345 -> 346 ;
347 [label="gini = 0.153\nsamples = 12\nvalue = [11, 1, 0]"] ;
345 -> 347 ;
348 [label="X[3] <= 0.345\ngini = 0.326\nsamples = 89\nvalue = [72, 11, 6]"] ;
344 -> 348 ;
349 [label="gini = 0.375\nsamples = 4\nvalue = [0, 3, 1]"] ;
348 -> 349 ;
350 [label="gini = 0.27\nsamples = 85\nvalue = [72, 8, 5]"] ;
348 -> 350 ;
351 [label="X[1] <= 0.427\ngini = 0.417\nsamples = 177\nvalue = [43, 128, 6]"] ;
249 -> 351 ;
352 [label="X[8] <= 0.53\ngini = 0.279\nsamples = 148\nvalue = [20, 124, 4]"] ;
351 -> 352 ;
353 [label="X[6] <= 0.511\ngini = 0.231\nsamples = 139\nvalue = [14, 121, 4]"] ;
352 -> 353 ;
354 [label="X[9] <= 0.59\ngini = 0.2\nsamples = 136\nvalue = [12, 121, 3]"] ;
353 -> 354 ;
355 [label="X[9] <= 0.157\ngini = 0.179\nsamples = 134\nvalue = [10, 121, 3]"] ;
354 -> 355 ;
356 [label="X[9] <= 0.116\ngini = 0.444\nsamples = 3\nvalue = [2, 1, 0]"] ;
355 -> 356 ;
357 [label="gini = 0.0\nsamples = 1\nvalue = [0, 1, 0]"] ;
356 -> 357 ;
358 [label="gini = 0.0\nsamples = 2\nvalue = [2, 0, 0]"] ;
356 -> 358 ;
359 [label="X[8] <= 0.226\ngini = 0.157\nsamples = 131\nvalue = [8, 120, 3]"] ;
355 -> 359 ;
360 [label="X[0] <= 0.589\ngini = 0.351\nsamples = 22\nvalue = [5, 17, 0]"] ;
359 -> 360 ;
361 [label="gini = 0.486\nsamples = 12\nvalue = [5, 7, 0]"] ;
360 -> 361 ;
362 [label="gini = 0.0\nsamples = 10\nvalue = [0, 10, 0]"] ;
360 -> 362 ;
363 [label="X[6] <= 0.343\ngini = 0.106\nsamples = 109\nvalue = [3, 103, 3]"] ;
359 -> 363 ;
364 [label="gini = 0.046\nsamples = 85\nvalue = [2, 83, 0]"] ;
363 -> 364 ;
365 [label="gini = 0.288\nsamples = 24\nvalue = [1, 20, 3]"] ;
363 -> 365 ;
366 [label="gini = 0.0\nsamples = 2\nvalue = [2, 0, 0]"] ;
354 -> 366 ;
367 [label="X[8] <= 0.191\ngini = 0.444\nsamples = 3\nvalue = [2, 0, 1]"] ;
353 -> 367 ;
368 [label="gini = 0.0\nsamples = 1\nvalue = [0, 0, 1]"] ;
367 -> 368 ;
369 [label="gini = 0.0\nsamples = 2\nvalue = [2, 0, 0]"] ;
367 -> 369 ;
370 [label="X[2] <= 0.294\ngini = 0.444\nsamples = 9\nvalue = [6, 3, 0]"] ;
352 -> 370 ;
371 [label="gini = 0.0\nsamples = 6\nvalue = [6, 0, 0]"] ;
370 -> 371 ;
372 [label="gini = 0.0\nsamples = 3\nvalue = [0, 3, 0]"] ;
370 -> 372 ;
373 [label="X[3] <= 0.595\ngini = 0.347\nsamples = 29\nvalue = [23, 4, 2]"] ;
351 -> 373 ;
374 [label="gini = 0.0\nsamples = 2\nvalue = [0, 2, 0]"] ;
373 -> 374 ;
375 [label="X[7] <= 0.63\ngini = 0.263\nsamples = 27\nvalue = [23, 2, 2]"] ;
373 -> 375 ;
376 [label="X[6] <= 0.371\ngini = 0.444\nsamples = 3\nvalue = [1, 2, 0]"] ;
375 -> 376 ;
377 [label="gini = 0.0\nsamples = 1\nvalue = [1, 0, 0]"] ;
376 -> 377 ;
378 [label="gini = 0.0\nsamples = 2\nvalue = [0, 2, 0]"] ;
376 -> 378 ;
379 [label="X[4] <= 0.404\ngini = 0.153\nsamples = 24\nvalue = [22, 0, 2]"] ;
375 -> 379 ;
380 [label="X[9] <= 0.237\ngini = 0.5\nsamples = 4\nvalue = [2, 0, 2]"] ;
379 -> 380 ;
381 [label="gini = 0.0\nsamples = 2\nvalue = [0, 0, 2]"] ;
380 -> 381 ;
382 [label="gini = 0.0\nsamples = 2\nvalue = [2, 0, 0]"] ;
380 -> 382 ;
383 [label="gini = 0.0\nsamples = 20\nvalue = [20, 0, 0]"] ;
379 -> 383 ;
384 [label="X[6] <= 0.489\ngini = 0.445\nsamples = 4010\nvalue = [2808, 997, 205]"] ;
48 -> 384 ;
385 [label="X[9] <= 0.173\ngini = 0.414\nsamples = 3433\nvalue = [2490, 834, 109]"] ;
384 -> 385 ;
386 [label="X[3] <= 0.965\ngini = 0.231\nsamples = 320\nvalue = [279, 27, 14]"] ;
385 -> 386 ;
387 [label="X[4] <= 0.319\ngini = 0.135\nsamples = 266\nvalue = [247, 6, 13]"] ;
386 -> 387 ;
388 [label="X[5] <= 0.232\ngini = 0.534\nsamples = 35\nvalue = [21, 3, 11]"] ;
387 -> 388 ;
389 [label="X[9] <= 0.119\ngini = 0.554\nsamples = 17\nvalue = [5, 2, 10]"] ;
388 -> 389 ;
390 [label="gini = 0.0\nsamples = 3\nvalue = [3, 0, 0]"] ;
389 -> 390 ;
391 [label="X[8] <= 0.424\ngini = 0.449\nsamples = 14\nvalue = [2, 2, 10]"] ;
389 -> 391 ;
392 [label="X[9] <= 0.159\ngini = 0.667\nsamples = 6\nvalue = [2, 2, 2]"] ;
391 -> 392 ;
393 [label="gini = 0.0\nsamples = 2\nvalue = [0, 2, 0]"] ;
392 -> 393 ;
394 [label="X[3] <= 0.545\ngini = 0.5\nsamples = 4\nvalue = [2, 0, 2]"] ;
392 -> 394 ;
395 [label="gini = 0.0\nsamples = 2\nvalue = [0, 0, 2]"] ;
394 -> 395 ;
396 [label="gini = 0.0\nsamples = 2\nvalue = [2, 0, 0]"] ;
394 -> 396 ;
397 [label="gini = 0.0\nsamples = 8\nvalue = [0, 0, 8]"] ;
391 -> 397 ;
398 [label="X[7] <= 0.451\ngini = 0.204\nsamples = 18\nvalue = [16, 1, 1]"] ;
388 -> 398 ;
399 [label="X[7] <= 0.424\ngini = 0.56\nsamples = 5\nvalue = [3, 1, 1]"] ;
398 -> 399 ;
400 [label="gini = 0.0\nsamples = 3\nvalue = [3, 0, 0]"] ;
399 -> 400 ;
401 [label="X[6] <= 0.348\ngini = 0.5\nsamples = 2\nvalue = [0, 1, 1]"] ;
399 -> 401 ;
402 [label="gini = 0.0\nsamples = 1\nvalue = [0, 1, 0]"] ;
401 -> 402 ;
403 [label="gini = 0.0\nsamples = 1\nvalue = [0, 0, 1]"] ;
401 -> 403 ;
404 [label="gini = 0.0\nsamples = 13\nvalue = [13, 0, 0]"] ;
398 -> 404 ;
405 [label="X[7] <= 0.44\ngini = 0.043\nsamples = 231\nvalue = [226, 3, 2]"] ;
387 -> 405 ;
406 [label="X[3] <= 0.865\ngini = 0.612\nsamples = 7\nvalue = [3, 3, 1]"] ;
405 -> 406 ;
407 [label="X[5] <= 0.376\ngini = 0.375\nsamples = 4\nvalue = [3, 0, 1]"] ;
406 -> 407 ;
408 [label="gini = 0.0\nsamples = 3\nvalue = [3, 0, 0]"] ;
407 -> 408 ;
409 [label="gini = 0.0\nsamples = 1\nvalue = [0, 0, 1]"] ;
407 -> 409 ;
410 [label="gini = 0.0\nsamples = 3\nvalue = [0, 3, 0]"] ;
406 -> 410 ;
411 [label="X[8] <= 0.775\ngini = 0.009\nsamples = 224\nvalue = [223, 0, 1]"] ;
405 -> 411 ;
412 [label="gini = 0.0\nsamples = 223\nvalue = [223, 0, 0]"] ;
411 -> 412 ;
413 [label="gini = 0.0\nsamples = 1\nvalue = [0, 0, 1]"] ;
411 -> 413 ;
414 [label="X[2] <= 0.067\ngini = 0.497\nsamples = 54\nvalue = [32, 21, 1]"] ;
386 -> 414 ;
415 [label="X[4] <= 0.366\ngini = 0.332\nsamples = 19\nvalue = [4, 15, 0]"] ;
414 -> 415 ;
416 [label="gini = 0.0\nsamples = 3\nvalue = [3, 0, 0]"] ;
415 -> 416 ;
417 [label="X[10] <= 0.762\ngini = 0.117\nsamples = 16\nvalue = [1, 15, 0]"] ;
415 -> 417 ;
418 [label="gini = 0.0\nsamples = 15\nvalue = [0, 15, 0]"] ;
417 -> 418 ;
419 [label="gini = 0.0\nsamples = 1\nvalue = [1, 0, 0]"] ;
417 -> 419 ;
420 [label="X[4] <= 0.282\ngini = 0.33\nsamples = 35\nvalue = [28, 6, 1]"] ;
414 -> 420 ;
421 [label="gini = 0.0\nsamples = 3\nvalue = [0, 3, 0]"] ;
420 -> 421 ;
422 [label="X[10] <= 0.439\ngini = 0.225\nsamples = 32\nvalue = [28, 3, 1]"] ;
420 -> 422 ;
423 [label="gini = 0.0\nsamples = 1\nvalue = [0, 1, 0]"] ;
422 -> 423 ;
424 [label="X[9] <= 0.168\ngini = 0.179\nsamples = 31\nvalue = [28, 2, 1]"] ;
422 -> 424 ;
425 [label="X[8] <= 0.623\ngini = 0.128\nsamples = 29\nvalue = [27, 2, 0]"] ;
424 -> 425 ;
426 [label="X[1] <= 0.482\ngini = 0.071\nsamples = 27\nvalue = [26, 1, 0]"] ;
425 -> 426 ;
427 [label="gini = 0.0\nsamples = 23\nvalue = [23, 0, 0]"] ;
426 -> 427 ;
428 [label="gini = 0.375\nsamples = 4\nvalue = [3, 1, 0]"] ;
426 -> 428 ;
429 [label="X[3] <= 0.985\ngini = 0.5\nsamples = 2\nvalue = [1, 1, 0]"] ;
425 -> 429 ;
430 [label="gini = 0.0\nsamples = 1\nvalue = [0, 1, 0]"] ;
429 -> 430 ;
431 [label="gini = 0.0\nsamples = 1\nvalue = [1, 0, 0]"] ;
429 -> 431 ;
432 [label="X[2] <= 0.099\ngini = 0.5\nsamples = 2\nvalue = [1, 0, 1]"] ;
424 -> 432 ;
433 [label="gini = 0.0\nsamples = 1\nvalue = [0, 0, 1]"] ;
432 -> 433 ;
434 [label="gini = 0.0\nsamples = 1\nvalue = [1, 0, 0]"] ;
432 -> 434 ;
435 [label="X[0] <= 0.53\ngini = 0.427\nsamples = 3113\nvalue = [2211, 807, 95]"] ;
385 -> 435 ;
436 [label="X[0] <= 0.304\ngini = 0.459\nsamples = 2098\nvalue = [1412, 618, 68]"] ;
435 -> 436 ;
437 [label="X[10] <= 0.872\ngini = 0.217\nsamples = 259\nvalue = [228, 22, 9]"] ;
436 -> 437 ;
438 [label="X[8] <= 0.409\ngini = 0.184\nsamples = 250\nvalue = [225, 18, 7]"] ;
437 -> 438 ;
439 [label="X[3] <= 0.43\ngini = 0.082\nsamples = 164\nvalue = [157, 5, 2]"] ;
438 -> 439 ;
440 [label="X[10] <= 0.604\ngini = 0.5\nsamples = 2\nvalue = [1, 0, 1]"] ;
439 -> 440 ;
441 [label="gini = 0.0\nsamples = 1\nvalue = [0, 0, 1]"] ;
440 -> 441 ;
442 [label="gini = 0.0\nsamples = 1\nvalue = [1, 0, 0]"] ;
440 -> 442 ;
443 [label="X[1] <= 0.227\ngini = 0.072\nsamples = 162\nvalue = [156, 5, 1]"] ;
439 -> 443 ;
444 [label="X[3] <= 0.965\ngini = 0.21\nsamples = 43\nvalue = [38, 4, 1]"] ;
443 -> 444 ;
445 [label="gini = 0.521\nsamples = 13\nvalue = [8, 4, 1]"] ;
444 -> 445 ;
446 [label="gini = 0.0\nsamples = 30\nvalue = [30, 0, 0]"] ;
444 -> 446 ;
447 [label="X[6] <= 0.399\ngini = 0.017\nsamples = 119\nvalue = [118, 1, 0]"] ;
443 -> 447 ;
448 [label="gini = 0.0\nsamples = 111\nvalue = [111, 0, 0]"] ;
447 -> 448 ;
449 [label="gini = 0.219\nsamples = 8\nvalue = [7, 1, 0]"] ;
447 -> 449 ;
450 [label="X[7] <= 0.88\ngini = 0.349\nsamples = 86\nvalue = [68, 13, 5]"] ;
438 -> 450 ;
451 [label="X[2] <= 0.051\ngini = 0.161\nsamples = 58\nvalue = [53, 3, 2]"] ;
450 -> 451 ;
452 [label="X[8] <= 0.525\ngini = 0.667\nsamples = 6\nvalue = [2, 2, 2]"] ;
451 -> 452 ;
453 [label="gini = 0.5\nsamples = 4\nvalue = [2, 2, 0]"] ;
452 -> 453 ;
454 [label="gini = 0.0\nsamples = 2\nvalue = [0, 0, 2]"] ;
452 -> 454 ;
455 [label="X[8] <= 0.421\ngini = 0.038\nsamples = 52\nvalue = [51, 1, 0]"] ;
451 -> 455 ;
456 [label="gini = 0.32\nsamples = 5\nvalue = [4, 1, 0]"] ;
455 -> 456 ;
457 [label="gini = 0.0\nsamples = 47\nvalue = [47, 0, 0]"] ;
455 -> 457 ;
458 [label="X[6] <= 0.404\ngini = 0.574\nsamples = 28\nvalue = [15, 10, 3]"] ;
450 -> 458 ;
459 [label="X[0] <= 0.214\ngini = 0.48\nsamples = 25\nvalue = [15, 10, 0]"] ;
458 -> 459 ;
460 [label="gini = 0.278\nsamples = 12\nvalue = [10, 2, 0]"] ;
459 -> 460 ;
461 [label="gini = 0.473\nsamples = 13\nvalue = [5, 8, 0]"] ;
459 -> 461 ;
462 [label="gini = 0.0\nsamples = 3\nvalue = [0, 0, 3]"] ;
458 -> 462 ;
463 [label="X[8] <= 0.452\ngini = 0.642\nsamples = 9\nvalue = [3, 4, 2]"] ;
437 -> 463 ;
464 [label="X[2] <= 0.222\ngini = 0.49\nsamples = 7\nvalue = [3, 4, 0]"] ;
463 -> 464 ;
465 [label="X[9] <= 0.539\ngini = 0.375\nsamples = 4\nvalue = [3, 1, 0]"] ;
464 -> 465 ;
466 [label="gini = 0.0\nsamples = 3\nvalue = [3, 0, 0]"] ;
465 -> 466 ;
467 [label="gini = 0.0\nsamples = 1\nvalue = [0, 1, 0]"] ;
465 -> 467 ;
468 [label="gini = 0.0\nsamples = 3\nvalue = [0, 3, 0]"] ;
464 -> 468 ;
469 [label="gini = 0.0\nsamples = 2\nvalue = [0, 0, 2]"] ;
463 -> 469 ;
470 [label="X[2] <= 0.056\ngini = 0.479\nsamples = 1839\nvalue = [1184, 596, 59]"] ;
436 -> 470 ;
471 [label="X[4] <= 0.415\ngini = 0.511\nsamples = 264\nvalue = [132, 129, 3]"] ;
470 -> 471 ;
472 [label="X[7] <= 0.679\ngini = 0.44\nsamples = 119\nvalue = [81, 37, 1]"] ;
471 -> 472 ;
473 [label="X[5] <= 0.217\ngini = 0.499\nsamples = 44\nvalue = [21, 23, 0]"] ;
472 -> 473 ;
474 [label="X[9] <= 0.189\ngini = 0.142\nsamples = 13\nvalue = [1, 12, 0]"] ;
473 -> 474 ;
475 [label="gini = 0.0\nsamples = 1\nvalue = [1, 0, 0]"] ;
474 -> 475 ;
476 [label="gini = 0.0\nsamples = 12\nvalue = [0, 12, 0]"] ;
474 -> 476 ;
477 [label="X[9] <= 0.337\ngini = 0.458\nsamples = 31\nvalue = [20, 11, 0]"] ;
473 -> 477 ;
478 [label="gini = 0.492\nsamples = 16\nvalue = [7, 9, 0]"] ;
477 -> 478 ;
479 [label="gini = 0.231\nsamples = 15\nvalue = [13, 2, 0]"] ;
477 -> 479 ;
480 [label="X[8] <= 0.207\ngini = 0.325\nsamples = 75\nvalue = [60, 14, 1]"] ;
472 -> 480 ;
481 [label="X[8] <= 0.121\ngini = 0.5\nsamples = 12\nvalue = [6, 6, 0]"] ;
480 -> 481 ;
482 [label="gini = 0.0\nsamples = 4\nvalue = [4, 0, 0]"] ;
481 -> 482 ;
483 [label="gini = 0.375\nsamples = 8\nvalue = [2, 6, 0]"] ;
481 -> 483 ;
484 [label="X[1] <= 0.409\ngini = 0.249\nsamples = 63\nvalue = [54, 8, 1]"] ;
480 -> 484 ;
485 [label="gini = 0.121\nsamples = 47\nvalue = [44, 2, 1]"] ;
484 -> 485 ;
486 [label="gini = 0.469\nsamples = 16\nvalue = [10, 6, 0]"] ;
484 -> 486 ;
487 [label="X[4] <= 0.579\ngini = 0.474\nsamples = 145\nvalue = [51, 92, 2]"] ;
471 -> 487 ;
488 [label="X[5] <= 0.304\ngini = 0.414\nsamples = 124\nvalue = [33, 89, 2]"] ;
487 -> 488 ;
489 [label="X[7] <= 0.424\ngini = 0.365\nsamples = 114\nvalue = [26, 87, 1]"] ;
488 -> 489 ;
490 [label="gini = 0.473\nsamples = 13\nvalue = [8, 5, 0]"] ;
489 -> 490 ;
491 [label="gini = 0.309\nsamples = 101\nvalue = [18, 82, 1]"] ;
489 -> 491 ;
492 [label="X[8] <= 0.615\ngini = 0.46\nsamples = 10\nvalue = [7, 2, 1]"] ;
488 -> 492 ;
493 [label="gini = 0.0\nsamples = 7\nvalue = [7, 0, 0]"] ;
492 -> 493 ;
494 [label="gini = 0.444\nsamples = 3\nvalue = [0, 2, 1]"] ;
492 -> 494 ;
495 [label="X[9] <= 0.439\ngini = 0.245\nsamples = 21\nvalue = [18, 3, 0]"] ;
487 -> 495 ;
496 [label="X[1] <= 0.591\ngini = 0.18\nsamples = 20\nvalue = [18, 2, 0]"] ;
495 -> 496 ;
497 [label="gini = 0.444\nsamples = 6\nvalue = [4, 2, 0]"] ;
496 -> 497 ;
498 [label="gini = 0.0\nsamples = 14\nvalue = [14, 0, 0]"] ;
496 -> 498 ;
499 [label="gini = 0.0\nsamples = 1\nvalue = [0, 1, 0]"] ;
495 -> 499 ;
500 [label="X[4] <= 0.259\ngini = 0.465\nsamples = 1575\nvalue = [1052, 467, 56]"] ;
470 -> 500 ;
501 [label="X[4] <= 0.183\ngini = 0.522\nsamples = 257\nvalue = [129, 122, 6]"] ;
500 -> 501 ;
502 [label="X[0] <= 0.435\ngini = 0.105\nsamples = 36\nvalue = [34, 2, 0]"] ;
501 -> 502 ;
503 [label="X[9] <= 0.288\ngini = 0.444\nsamples = 6\nvalue = [4, 2, 0]"] ;
502 -> 503 ;
504 [label="gini = 0.0\nsamples = 2\nvalue = [0, 2, 0]"] ;
503 -> 504 ;
505 [label="gini = 0.0\nsamples = 4\nvalue = [4, 0, 0]"] ;
503 -> 505 ;
506 [label="gini = 0.0\nsamples = 30\nvalue = [30, 0, 0]"] ;
502 -> 506 ;
507 [label="X[6] <= 0.275\ngini = 0.52\nsamples = 221\nvalue = [95, 120, 6]"] ;
501 -> 507 ;
508 [label="X[6] <= 0.152\ngini = 0.414\nsamples = 115\nvalue = [32, 82, 1]"] ;
507 -> 508 ;
509 [label="gini = 0.48\nsamples = 20\nvalue = [12, 8, 0]"] ;
508 -> 509 ;
510 [label="gini = 0.349\nsamples = 95\nvalue = [20, 74, 1]"] ;
508 -> 510 ;
511 [label="X[3] <= 0.525\ngini = 0.516\nsamples = 106\nvalue = [63, 38, 5]"] ;
507 -> 511 ;
512 [label="gini = 0.477\nsamples = 16\nvalue = [3, 11, 2]"] ;
511 -> 512 ;
513 [label="gini = 0.464\nsamples = 90\nvalue = [60, 27, 3]"] ;
511 -> 513 ;
514 [label="X[10] <= 0.494\ngini = 0.44\nsamples = 1318\nvalue = [923, 345, 50]"] ;
500 -> 514 ;
515 [label="X[0] <= 0.506\ngini = 0.51\nsamples = 245\nvalue = [142, 96, 7]"] ;
514 -> 515 ;
516 [label="X[2] <= 0.163\ngini = 0.525\nsamples = 200\nvalue = [106, 88, 6]"] ;
515 -> 516 ;
517 [label="gini = 0.533\nsamples = 175\nvalue = [84, 85, 6]"] ;
516 -> 517 ;
518 [label="gini = 0.211\nsamples = 25\nvalue = [22, 3, 0]"] ;
516 -> 518 ;
519 [label="X[3] <= 0.975\ngini = 0.328\nsamples = 45\nvalue = [36, 8, 1]"] ;
515 -> 519 ;
520 [label="gini = 0.507\nsamples = 23\nvalue = [14, 8, 1]"] ;
519 -> 520 ;
521 [label="gini = 0.0\nsamples = 22\nvalue = [22, 0, 0]"] ;
519 -> 521 ;
522 [label="X[6] <= 0.096\ngini = 0.415\nsamples = 1073\nvalue = [781, 249, 43]"] ;
514 -> 522 ;
523 [label="X[9] <= 0.279\ngini = 0.434\nsamples = 22\nvalue = [7, 15, 0]"] ;
522 -> 523 ;
524 [label="gini = 0.0\nsamples = 5\nvalue = [5, 0, 0]"] ;
523 -> 524 ;
525 [label="gini = 0.208\nsamples = 17\nvalue = [2, 15, 0]"] ;
523 -> 525 ;
526 [label="X[2] <= 0.294\ngini = 0.406\nsamples = 1051\nvalue = [774, 234, 43]"] ;
522 -> 526 ;
527 [label="gini = 0.393\nsamples = 1020\nvalue = [762, 223, 35]"] ;
526 -> 527 ;
528 [label="gini = 0.658\nsamples = 31\nvalue = [12, 11, 8]"] ;
526 -> 528 ;
529 [label="X[0] <= 0.696\ngini = 0.345\nsamples = 1015\nvalue = [799, 189, 27]"] ;
435 -> 529 ;
530 [label="X[6] <= 0.107\ngini = 0.315\nsamples = 933\nvalue = [756, 155, 22]"] ;
529 -> 530 ;
531 [label="X[10] <= 0.713\ngini = 0.426\nsamples = 13\nvalue = [4, 9, 0]"] ;
530 -> 531 ;
532 [label="X[7] <= 0.821\ngini = 0.32\nsamples = 5\nvalue = [4, 1, 0]"] ;
531 -> 532 ;
533 [label="gini = 0.0\nsamples = 1\nvalue = [0, 1, 0]"] ;
532 -> 533 ;
534 [label="gini = 0.0\nsamples = 4\nvalue = [4, 0, 0]"] ;
532 -> 534 ;
535 [label="gini = 0.0\nsamples = 8\nvalue = [0, 8, 0]"] ;
531 -> 535 ;
536 [label="X[3] <= 0.315\ngini = 0.306\nsamples = 920\nvalue = [752, 146, 22]"] ;
530 -> 536 ;
537 [label="X[8] <= 0.504\ngini = 0.444\nsamples = 6\nvalue = [0, 4, 2]"] ;
536 -> 537 ;
538 [label="gini = 0.0\nsamples = 4\nvalue = [0, 4, 0]"] ;
537 -> 538 ;
539 [label="gini = 0.0\nsamples = 2\nvalue = [0, 0, 2]"] ;
537 -> 539 ;
540 [label="X[5] <= 0.894\ngini = 0.298\nsamples = 914\nvalue = [752, 142, 20]"] ;
536 -> 540 ;
541 [label="X[5] <= 0.233\ngini = 0.28\nsamples = 868\nvalue = [725, 128, 15]"] ;
540 -> 541 ;
542 [label="X[3] <= 0.945\ngini = 0.332\nsamples = 598\nvalue = [476, 111, 11]"] ;
541 -> 542 ;
543 [label="gini = 0.165\nsamples = 146\nvalue = [133, 10, 3]"] ;
542 -> 543 ;
544 [label="gini = 0.374\nsamples = 452\nvalue = [343, 101, 8]"] ;
542 -> 544 ;
545 [label="X[8] <= 0.078\ngini = 0.145\nsamples = 270\nvalue = [249, 17, 4]"] ;
541 -> 545 ;
546 [label="gini = 0.0\nsamples = 1\nvalue = [0, 1, 0]"] ;
545 -> 546 ;
547 [label="gini = 0.139\nsamples = 269\nvalue = [249, 16, 4]"] ;
545 -> 547 ;
548 [label="X[8] <= 0.522\ngini = 0.551\nsamples = 46\nvalue = [27, 14, 5]"] ;
540 -> 548 ;
549 [label="X[4] <= 0.396\ngini = 0.512\nsamples = 18\nvalue = [6, 11, 1]"] ;
548 -> 549 ;
550 [label="gini = 0.165\nsamples = 11\nvalue = [1, 10, 0]"] ;
549 -> 550 ;
551 [label="gini = 0.449\nsamples = 7\nvalue = [5, 1, 1]"] ;
549 -> 551 ;
552 [label="X[2] <= 0.072\ngini = 0.406\nsamples = 28\nvalue = [21, 3, 4]"] ;
548 -> 552 ;
553 [label="gini = 0.656\nsamples = 8\nvalue = [3, 2, 3]"] ;
552 -> 553 ;
554 [label="gini = 0.185\nsamples = 20\nvalue = [18, 1, 1]"] ;
552 -> 554 ;
555 [label="X[4] <= 0.418\ngini = 0.549\nsamples = 82\nvalue = [43, 34, 5]"] ;
529 -> 555 ;
556 [label="X[10] <= 0.506\ngini = 0.067\nsamples = 29\nvalue = [28, 0, 1]"] ;
555 -> 556 ;
557 [label="gini = 0.0\nsamples = 1\nvalue = [0, 0, 1]"] ;
556 -> 557 ;
558 [label="gini = 0.0\nsamples = 28\nvalue = [28, 0, 0]"] ;
556 -> 558 ;
559 [label="X[3] <= 0.91\ngini = 0.503\nsamples = 53\nvalue = [15, 34, 4]"] ;
555 -> 559 ;
560 [label="gini = 0.0\nsamples = 9\nvalue = [9, 0, 0]"] ;
559 -> 560 ;
561 [label="X[9] <= 0.515\ngini = 0.376\nsamples = 44\nvalue = [6, 34, 4]"] ;
559 -> 561 ;
562 [label="X[4] <= 0.552\ngini = 0.255\nsamples = 40\nvalue = [6, 34, 0]"] ;
561 -> 562 ;
563 [label="X[6] <= 0.416\ngini = 0.108\nsamples = 35\nvalue = [2, 33, 0]"] ;
562 -> 563 ;
564 [label="gini = 0.057\nsamples = 34\nvalue = [1, 33, 0]"] ;
563 -> 564 ;
565 [label="gini = 0.0\nsamples = 1\nvalue = [1, 0, 0]"] ;
563 -> 565 ;
566 [label="X[6] <= 0.191\ngini = 0.32\nsamples = 5\nvalue = [4, 1, 0]"] ;
562 -> 566 ;
567 [label="gini = 0.0\nsamples = 1\nvalue = [0, 1, 0]"] ;
566 -> 567 ;
568 [label="gini = 0.0\nsamples = 4\nvalue = [4, 0, 0]"] ;
566 -> 568 ;
569 [label="gini = 0.0\nsamples = 4\nvalue = [0, 0, 4]"] ;
561 -> 569 ;
570 [label="X[8] <= 0.59\ngini = 0.589\nsamples = 577\nvalue = [318, 163, 96]"] ;
384 -> 570 ;
571 [label="X[5] <= 0.218\ngini = 0.537\nsamples = 492\nvalue = [299, 142, 51]"] ;
570 -> 571 ;
572 [label="X[10] <= 0.421\ngini = 0.564\nsamples = 241\nvalue = [120, 103, 18]"] ;
571 -> 572 ;
573 [label="X[2] <= 0.158\ngini = 0.523\nsamples = 168\nvalue = [100, 58, 10]"] ;
572 -> 573 ;
574 [label="X[1] <= 0.5\ngini = 0.563\nsamples = 132\nvalue = [67, 55, 10]"] ;
573 -> 574 ;
575 [label="X[0] <= 0.655\ngini = 0.552\nsamples = 92\nvalue = [53, 30, 9]"] ;
574 -> 575 ;
576 [label="X[7] <= 0.804\ngini = 0.518\nsamples = 88\nvalue = [53, 30, 5]"] ;
575 -> 576 ;
577 [label="X[6] <= 0.5\ngini = 0.562\nsamples = 67\nvalue = [34, 28, 5]"] ;
576 -> 577 ;
578 [label="gini = 0.219\nsamples = 8\nvalue = [1, 7, 0]"] ;
577 -> 578 ;
579 [label="gini = 0.553\nsamples = 59\nvalue = [33, 21, 5]"] ;
577 -> 579 ;
580 [label="X[8] <= 0.567\ngini = 0.172\nsamples = 21\nvalue = [19, 2, 0]"] ;
576 -> 580 ;
581 [label="gini = 0.095\nsamples = 20\nvalue = [19, 1, 0]"] ;
580 -> 581 ;
582 [label="gini = 0.0\nsamples = 1\nvalue = [0, 1, 0]"] ;
580 -> 582 ;
583 [label="gini = 0.0\nsamples = 4\nvalue = [0, 0, 4]"] ;
575 -> 583 ;
584 [label="X[6] <= 0.522\ngini = 0.486\nsamples = 40\nvalue = [14, 25, 1]"] ;
574 -> 584 ;
585 [label="X[2] <= 0.056\ngini = 0.444\nsamples = 12\nvalue = [8, 4, 0]"] ;
584 -> 585 ;
586 [label="gini = 0.0\nsamples = 3\nvalue = [0, 3, 0]"] ;
585 -> 586 ;
587 [label="X[1] <= 0.518\ngini = 0.198\nsamples = 9\nvalue = [8, 1, 0]"] ;
585 -> 587 ;
588 [label="gini = 0.0\nsamples = 1\nvalue = [0, 1, 0]"] ;
587 -> 588 ;
589 [label="gini = 0.0\nsamples = 8\nvalue = [8, 0, 0]"] ;
587 -> 589 ;
590 [label="X[3] <= 0.99\ngini = 0.39\nsamples = 28\nvalue = [6, 21, 1]"] ;
584 -> 590 ;
591 [label="X[2] <= 0.027\ngini = 0.278\nsamples = 25\nvalue = [3, 21, 1]"] ;
590 -> 591 ;
592 [label="gini = 0.0\nsamples = 1\nvalue = [0, 0, 1]"] ;
591 -> 592 ;
593 [label="gini = 0.219\nsamples = 24\nvalue = [3, 21, 0]"] ;
591 -> 593 ;
594 [label="gini = 0.0\nsamples = 3\nvalue = [3, 0, 0]"] ;
590 -> 594 ;
595 [label="X[9] <= 0.178\ngini = 0.153\nsamples = 36\nvalue = [33, 3, 0]"] ;
573 -> 595 ;
596 [label="gini = 0.0\nsamples = 1\nvalue = [0, 1, 0]"] ;
595 -> 596 ;
597 [label="X[9] <= 0.477\ngini = 0.108\nsamples = 35\nvalue = [33, 2, 0]"] ;
595 -> 597 ;
598 [label="X[10] <= 0.39\ngini = 0.057\nsamples = 34\nvalue = [33, 1, 0]"] ;
597 -> 598 ;
599 [label="gini = 0.0\nsamples = 33\nvalue = [33, 0, 0]"] ;
598 -> 599 ;
600 [label="gini = 0.0\nsamples = 1\nvalue = [0, 1, 0]"] ;
598 -> 600 ;
601 [label="gini = 0.0\nsamples = 1\nvalue = [0, 1, 0]"] ;
597 -> 601 ;
602 [label="X[4] <= 0.333\ngini = 0.533\nsamples = 73\nvalue = [20, 45, 8]"] ;
572 -> 602 ;
603 [label="X[10] <= 0.53\ngini = 0.635\nsamples = 20\nvalue = [9, 4, 7]"] ;
602 -> 603 ;
604 [label="X[2] <= 0.115\ngini = 0.551\nsamples = 15\nvalue = [9, 4, 2]"] ;
603 -> 604 ;
605 [label="X[0] <= 0.446\ngini = 0.403\nsamples = 12\nvalue = [9, 1, 2]"] ;
604 -> 605 ;
606 [label="X[1] <= 0.3\ngini = 0.64\nsamples = 5\nvalue = [2, 1, 2]"] ;
605 -> 606 ;
607 [label="gini = 0.0\nsamples = 2\nvalue = [0, 0, 2]"] ;
606 -> 607 ;
608 [label="gini = 0.444\nsamples = 3\nvalue = [2, 1, 0]"] ;
606 -> 608 ;
609 [label="gini = 0.0\nsamples = 7\nvalue = [7, 0, 0]"] ;
605 -> 609 ;
610 [label="gini = 0.0\nsamples = 3\nvalue = [0, 3, 0]"] ;
604 -> 610 ;
611 [label="gini = 0.0\nsamples = 5\nvalue = [0, 0, 5]"] ;
603 -> 611 ;
612 [label="X[9] <= 0.409\ngini = 0.358\nsamples = 53\nvalue = [11, 41, 1]"] ;
602 -> 612 ;
613 [label="X[7] <= 0.473\ngini = 0.232\nsamples = 46\nvalue = [5, 40, 1]"] ;
612 -> 613 ;
614 [label="gini = 0.0\nsamples = 2\nvalue = [2, 0, 0]"] ;
613 -> 614 ;
615 [label="X[0] <= 0.375\ngini = 0.168\nsamples = 44\nvalue = [3, 40, 1]"] ;
613 -> 615 ;
616 [label="X[3] <= 0.965\ngini = 0.444\nsamples = 3\nvalue = [2, 1, 0]"] ;
615 -> 616 ;
617 [label="gini = 0.0\nsamples = 2\nvalue = [2, 0, 0]"] ;
616 -> 617 ;
618 [label="gini = 0.0\nsamples = 1\nvalue = [0, 1, 0]"] ;
616 -> 618 ;
619 [label="X[3] <= 0.36\ngini = 0.094\nsamples = 41\nvalue = [1, 39, 1]"] ;
615 -> 619 ;
620 [label="gini = 0.0\nsamples = 1\nvalue = [0, 0, 1]"] ;
619 -> 620 ;
621 [label="gini = 0.049\nsamples = 40\nvalue = [1, 39, 0]"] ;
619 -> 621 ;
622 [label="X[10] <= 0.445\ngini = 0.245\nsamples = 7\nvalue = [6, 1, 0]"] ;
612 -> 622 ;
623 [label="X[0] <= 0.595\ngini = 0.5\nsamples = 2\nvalue = [1, 1, 0]"] ;
622 -> 623 ;
624 [label="gini = 0.0\nsamples = 1\nvalue = [0, 1, 0]"] ;
623 -> 624 ;
625 [label="gini = 0.0\nsamples = 1\nvalue = [1, 0, 0]"] ;
623 -> 625 ;
626 [label="gini = 0.0\nsamples = 5\nvalue = [5, 0, 0]"] ;
622 -> 626 ;
627 [label="X[1] <= 0.282\ngini = 0.45\nsamples = 251\nvalue = [179, 39, 33]"] ;
571 -> 627 ;
628 [label="X[2] <= 0.184\ngini = 0.523\nsamples = 36\nvalue = [19, 1, 16]"] ;
627 -> 628 ;
629 [label="X[0] <= 0.488\ngini = 0.255\nsamples = 14\nvalue = [1, 1, 12]"] ;
628 -> 629 ;
630 [label="X[3] <= 0.33\ngini = 0.142\nsamples = 13\nvalue = [0, 1, 12]"] ;
629 -> 630 ;
631 [label="gini = 0.0\nsamples = 1\nvalue = [0, 1, 0]"] ;
630 -> 631 ;
632 [label="gini = 0.0\nsamples = 12\nvalue = [0, 0, 12]"] ;
630 -> 632 ;
633 [label="gini = 0.0\nsamples = 1\nvalue = [1, 0, 0]"] ;
629 -> 633 ;
634 [label="X[4] <= 0.289\ngini = 0.298\nsamples = 22\nvalue = [18, 0, 4]"] ;
628 -> 634 ;
635 [label="X[10] <= 0.591\ngini = 0.18\nsamples = 20\nvalue = [18, 0, 2]"] ;
634 -> 635 ;
636 [label="X[9] <= 0.431\ngini = 0.1\nsamples = 19\nvalue = [18, 0, 1]"] ;
635 -> 636 ;
637 [label="gini = 0.0\nsamples = 18\nvalue = [18, 0, 0]"] ;
636 -> 637 ;
638 [label="gini = 0.0\nsamples = 1\nvalue = [0, 0, 1]"] ;
636 -> 638 ;
639 [label="gini = 0.0\nsamples = 1\nvalue = [0, 0, 1]"] ;
635 -> 639 ;
640 [label="gini = 0.0\nsamples = 2\nvalue = [0, 0, 2]"] ;
634 -> 640 ;
641 [label="X[10] <= 0.518\ngini = 0.409\nsamples = 215\nvalue = [160, 38, 17]"] ;
627 -> 641 ;
642 [label="X[9] <= 0.608\ngini = 0.382\nsamples = 206\nvalue = [158, 32, 16]"] ;
641 -> 642 ;
643 [label="X[9] <= 0.36\ngini = 0.357\nsamples = 199\nvalue = [156, 32, 11]"] ;
642 -> 643 ;
644 [label="X[6] <= 0.713\ngini = 0.448\nsamples = 140\nvalue = [99, 30, 11]"] ;
643 -> 644 ;
645 [label="X[2] <= 0.067\ngini = 0.426\nsamples = 137\nvalue = [99, 30, 8]"] ;
644 -> 645 ;
646 [label="gini = 0.537\nsamples = 51\nvalue = [30, 17, 4]"] ;
645 -> 646 ;
647 [label="gini = 0.331\nsamples = 86\nvalue = [69, 13, 4]"] ;
645 -> 647 ;
648 [label="gini = 0.0\nsamples = 3\nvalue = [0, 0, 3]"] ;
644 -> 648 ;
649 [label="X[8] <= 0.284\ngini = 0.065\nsamples = 59\nvalue = [57, 2, 0]"] ;
643 -> 649 ;
650 [label="X[9] <= 0.495\ngini = 0.408\nsamples = 7\nvalue = [5, 2, 0]"] ;
649 -> 650 ;
651 [label="gini = 0.0\nsamples = 5\nvalue = [5, 0, 0]"] ;
650 -> 651 ;
652 [label="gini = 0.0\nsamples = 2\nvalue = [0, 2, 0]"] ;
650 -> 652 ;
653 [label="gini = 0.0\nsamples = 52\nvalue = [52, 0, 0]"] ;
649 -> 653 ;
654 [label="X[8] <= 0.345\ngini = 0.408\nsamples = 7\nvalue = [2, 0, 5]"] ;
642 -> 654 ;
655 [label="gini = 0.0\nsamples = 5\nvalue = [0, 0, 5]"] ;
654 -> 655 ;
656 [label="gini = 0.0\nsamples = 2\nvalue = [2, 0, 0]"] ;
654 -> 656 ;
657 [label="X[4] <= 0.32\ngini = 0.494\nsamples = 9\nvalue = [2, 6, 1]"] ;
641 -> 657 ;
658 [label="gini = 0.0\nsamples = 2\nvalue = [2, 0, 0]"] ;
657 -> 658 ;
659 [label="X[8] <= 0.474\ngini = 0.245\nsamples = 7\nvalue = [0, 6, 1]"] ;
657 -> 659 ;
660 [label="gini = 0.0\nsamples = 6\nvalue = [0, 6, 0]"] ;
659 -> 660 ;
661 [label="gini = 0.0\nsamples = 1\nvalue = [0, 0, 1]"] ;
659 -> 661 ;
662 [label="X[1] <= 0.336\ngini = 0.609\nsamples = 85\nvalue = [19, 21, 45]"] ;
570 -> 662 ;
663 [label="X[2] <= 0.184\ngini = 0.373\nsamples = 42\nvalue = [9, 1, 32]"] ;
662 -> 663 ;
664 [label="X[8] <= 0.767\ngini = 0.169\nsamples = 33\nvalue = [2, 1, 30]"] ;
663 -> 664 ;
665 [label="X[2] <= 0.155\ngini = 0.062\nsamples = 31\nvalue = [0, 1, 30]"] ;
664 -> 665 ;
666 [label="gini = 0.0\nsamples = 28\nvalue = [0, 0, 28]"] ;
665 -> 666 ;
667 [label="X[5] <= 0.634\ngini = 0.444\nsamples = 3\nvalue = [0, 1, 2]"] ;
665 -> 667 ;
668 [label="gini = 0.0\nsamples = 2\nvalue = [0, 0, 2]"] ;
667 -> 668 ;
669 [label="gini = 0.0\nsamples = 1\nvalue = [0, 1, 0]"] ;
667 -> 669 ;
670 [label="gini = 0.0\nsamples = 2\nvalue = [2, 0, 0]"] ;
664 -> 670 ;
671 [label="X[10] <= 0.512\ngini = 0.346\nsamples = 9\nvalue = [7, 0, 2]"] ;
663 -> 671 ;
672 [label="gini = 0.0\nsamples = 7\nvalue = [7, 0, 0]"] ;
671 -> 672 ;
673 [label="gini = 0.0\nsamples = 2\nvalue = [0, 0, 2]"] ;
671 -> 673 ;
674 [label="X[3] <= 0.7\ngini = 0.638\nsamples = 43\nvalue = [10, 20, 13]"] ;
662 -> 674 ;
675 [label="X[4] <= 0.618\ngini = 0.338\nsamples = 15\nvalue = [2, 1, 12]"] ;
674 -> 675 ;
676 [label="X[4] <= 0.443\ngini = 0.142\nsamples = 13\nvalue = [0, 1, 12]"] ;
675 -> 676 ;
677 [label="gini = 0.0\nsamples = 1\nvalue = [0, 1, 0]"] ;
676 -> 677 ;
678 [label="gini = 0.0\nsamples = 12\nvalue = [0, 0, 12]"] ;
676 -> 678 ;
679 [label="gini = 0.0\nsamples = 2\nvalue = [2, 0, 0]"] ;
675 -> 679 ;
680 [label="X[4] <= 0.371\ngini = 0.457\nsamples = 28\nvalue = [8, 19, 1]"] ;
674 -> 680 ;
681 [label="gini = 0.0\nsamples = 2\nvalue = [2, 0, 0]"] ;
680 -> 681 ;
682 [label="X[4] <= 0.508\ngini = 0.411\nsamples = 26\nvalue = [6, 19, 1]"] ;
680 -> 682 ;
683 [label="X[5] <= 0.934\ngini = 0.265\nsamples = 20\nvalue = [2, 17, 1]"] ;
682 -> 683 ;
684 [label="gini = 0.0\nsamples = 16\nvalue = [0, 16, 0]"] ;
683 -> 684 ;
685 [label="X[0] <= 0.601\ngini = 0.625\nsamples = 4\nvalue = [2, 1, 1]"] ;
683 -> 685 ;
686 [label="gini = 0.0\nsamples = 2\nvalue = [2, 0, 0]"] ;
685 -> 686 ;
687 [label="X[0] <= 0.649\ngini = 0.5\nsamples = 2\nvalue = [0, 1, 1]"] ;
685 -> 687 ;
688 [label="gini = 0.0\nsamples = 1\nvalue = [0, 0, 1]"] ;
687 -> 688 ;
689 [label="gini = 0.0\nsamples = 1\nvalue = [0, 1, 0]"] ;
687 -> 689 ;
690 [label="X[7] <= 0.348\ngini = 0.444\nsamples = 6\nvalue = [4, 2, 0]"] ;
682 -> 690 ;
691 [label="gini = 0.0\nsamples = 2\nvalue = [0, 2, 0]"] ;
690 -> 691 ;
692 [label="gini = 0.0\nsamples = 4\nvalue = [4, 0, 0]"] ;
690 -> 692 ;
}