digraph Tree {
node [shape=box, style="filled, rounded", color="black", fontname="helvetica"] ;
edge [fontname="helvetica"] ;
0 [label="activity_score_training_volume <= 0.275\ngini = 0.499\nsamples = 7461\nvalue = [4788, 2176, 497]", fillcolor="#f2c19d"] ;
1 [label="sleep_light <= 0.399\ngini = 0.525\nsamples = 200\nvalue = [72, 11, 117]", fillcolor="#d3b9f6"] ;
0 -> 1 [labeldistance=2.5, labelangle=45, headlabel="True"] ;
2 [label="sleep_breath_average <= 0.446\ngini = 0.543\nsamples = 99\nvalue = [59, 10, 30]", fillcolor="#f4caac"] ;
1 -> 2 ;
3 [label="sleep_midpoint_at_delta <= 0.246\ngini = 0.26\nsamples = 52\nvalue = [44, 0, 8]", fillcolor="#ea985d"] ;
2 -> 3 ;
4 [label="(...)", fillcolor="#C0C0C0"] ;
3 -> 4 ;
11 [label="(...)", fillcolor="#C0C0C0"] ;
3 -> 11 ;
14 [label="sleep_breath_average <= 0.661\ngini = 0.634\nsamples = 47\nvalue = [15, 10, 22]", fillcolor="#e3d4f9"] ;
2 -> 14 ;
15 [label="(...)", fillcolor="#C0C0C0"] ;
14 -> 15 ;
32 [label="(...)", fillcolor="#C0C0C0"] ;
14 -> 32 ;
33 [label="sleep_hr_average <= 0.661\ngini = 0.241\nsamples = 101\nvalue = [13, 1, 87]", fillcolor="#9558e9"] ;
1 -> 33 ;
34 [label="activity_cal_total <= 0.248\ngini = 0.172\nsamples = 96\nvalue = [8, 1, 87]", fillcolor="#8e4de8"] ;
33 -> 34 ;
35 [label="(...)", fillcolor="#C0C0C0"] ;
34 -> 35 ;
46 [label="(...)", fillcolor="#C0C0C0"] ;
34 -> 46 ;
47 [label="gini = 0.0\nsamples = 5\nvalue = [5, 0, 0]", fillcolor="#e58139"] ;
33 -> 47 ;
48 [label="sleep_midpoint_at_delta <= 0.186\ngini = 0.487\nsamples = 7261\nvalue = [4716, 2165, 380]", fillcolor="#f2c09c"] ;
0 -> 48 [labeldistance=2.5, labelangle=-45, headlabel="False"] ;
49 [label="sleep_breath_average <= 0.542\ngini = 0.524\nsamples = 3251\nvalue = [1908, 1168, 175]", fillcolor="#f6d2b9"] ;
48 -> 49 ;
50 [label="sleep_hr_lowest <= 0.409\ngini = 0.505\nsamples = 2254\nvalue = [1415, 703, 136]", fillcolor="#f3c5a4"] ;
49 -> 50 ;
51 [label="(...)", fillcolor="#C0C0C0"] ;
50 -> 51 ;
184 [label="(...)", fillcolor="#C0C0C0"] ;
50 -> 184 ;
249 [label="sleep_rmssd <= 0.179\ngini = 0.536\nsamples = 997\nvalue = [493, 465, 39]", fillcolor="#fef8f5"] ;
49 -> 249 ;
250 [label="(...)", fillcolor="#C0C0C0"] ;
249 -> 250 ;
351 [label="(...)", fillcolor="#C0C0C0"] ;
249 -> 351 ;
384 [label="sleep_restless <= 0.489\ngini = 0.445\nsamples = 4010\nvalue = [2808, 997, 205]", fillcolor="#efb388"] ;
48 -> 384 ;
385 [label="activity_cal_total <= 0.173\ngini = 0.414\nsamples = 3433\nvalue = [2490, 834, 109]", fillcolor="#eeaf81"] ;
384 -> 385 ;
386 [label="(...)", fillcolor="#C0C0C0"] ;
385 -> 386 ;
435 [label="(...)", fillcolor="#C0C0C0"] ;
385 -> 435 ;
570 [label="sleep_light <= 0.59\ngini = 0.589\nsamples = 577\nvalue = [318, 163, 96]", fillcolor="#f5d0b5"] ;
384 -> 570 ;
571 [label="(...)", fillcolor="#C0C0C0"] ;
570 -> 571 ;
662 [label="(...)", fillcolor="#C0C0C0"] ;
570 -> 662 ;
}